<?xml version="1.0"?>
<opencv_storage>
<cascade>
  <stageType>BOOST</stageType>
  <featureType>LBP</featureType>
  <height>12</height>
  <width>24</width>
  <stageParams>
    <boostType>GAB</boostType>
    <minHitRate>9.9500000476837158e-001</minHitRate>
    <maxFalseAlarm>5.0000000000000000e-001</maxFalseAlarm>
    <weightTrimRate>9.4999999999999996e-001</weightTrimRate>
    <maxDepth>1</maxDepth>
    <maxWeakCount>100</maxWeakCount></stageParams>
  <featureParams>
    <maxCatCount>256</maxCatCount>
    <featSize>1</featSize></featureParams>
  <stageNum>12</stageNum>
  <stages>
    <!-- stage 0 -->
    <_>
      <maxWeakCount>6</maxWeakCount>
      <stageThreshold>-1.7570762634277344e+000</stageThreshold>
      <weakClassifiers>
        <_>
          <internalNodes>
            0 -1 11 -720252418 -2354987 -1324609378 -3129148 -1163265090
            -4486997 -1417565189 -7693840</internalNodes>
          <leafValues>
            -8.0266278982162476e-001 3.9835086464881897e-001</leafValues></_>
        <_>
          <internalNodes>
            0 -1 38 -211819585 -2889073 285573359 -541113321 -1551764741
            562803371 8618683 20644523</internalNodes>
          <leafValues>
            -6.5362405776977539e-001 4.0725532174110413e-001</leafValues></_>
        <_>
          <internalNodes>
            0 -1 89 -782823133 1132705123 1410822419 2002242867
            857436467 1677713379 1921250067 -3081</internalNodes>
          <leafValues>
            -5.7140541076660156e-001 4.0614339709281921e-001</leafValues></_>
        <_>
          <internalNodes>
            0 -1 103 -13636277 -134219807 118191483 1365242197 -14680693
            -1458248937 2134872059 1431295455</internalNodes>
          <leafValues>
            -3.3061069250106812e-001 4.7971418499946594e-001</leafValues></_>
        <_>
          <internalNodes>
            0 -1 43 -632371058 1213546946 404079007 256967157 -128097797
            1075528847 -110479061 153341691</internalNodes>
          <leafValues>
            -4.8659521341323853e-001 2.9594352841377258e-001</leafValues></_>
        <_>
          <internalNodes>
            0 -1 61 -806600680 1472331796 1074833536 1572544520
            -890500918 1133150376 1744985750 155123803</internalNodes>
          <leafValues>
            -4.1082778573036194e-001 3.0528306961059570e-001</leafValues></_></weakClassifiers></_>
    <!-- stage 1 -->
    <_>
      <maxWeakCount>10</maxWeakCount>
      <stageThreshold>-1.7553142309188843e+000</stageThreshold>
      <weakClassifiers>
        <_>
          <internalNodes>
            0 -1 82 -612371489 -2107393 1901187415 -216006905 -618671105
            -2114885 -551552065 -15484157</internalNodes>
          <leafValues>
            -6.6888517141342163e-001 3.4113711118698120e-001</leafValues></_>
        <_>
          <internalNodes>
            0 -1 14 -140575746 -3221426 1359665038 2130900514 -79692801
            -106978677 -1147424789 -70520668</internalNodes>
          <leafValues>
            -6.2210863828659058e-001 3.2706201076507568e-001</leafValues></_>
        <_>
          <internalNodes>
            0 -1 126 -743706462 170622371 904352928 -206047505 314572707
            -1961099329 582397135 -8193</internalNodes>
          <leafValues>
            -3.8271942734718323e-001 4.7521993517875671e-001</leafValues></_>
        <_>
          <internalNodes>
            0 -1 28 -11542821 -82060721 1862131403 1540177927 -621028613
            267362303 1881396191 1396437979</internalNodes>
          <leafValues>
            -3.0175527930259705e-001 4.5539480447769165e-001</leafValues></_>
        <_>
          <internalNodes>
            0 -1 84 -250490532 -2338305 524506640 2046759199 -1727874672
            -643104581 -1190618864 -122115400</internalNodes>
          <leafValues>
            -5.6112670898437500e-001 2.0097096264362335e-001</leafValues></_>
        <_>
          <internalNodes>
            0 -1 82 1499390803 -405876226 1884405890 -1277759911
            295424935 1059029522 -673451502 334443388</internalNodes>
          <leafValues>
            -3.6330956220626831e-001 2.8971511125564575e-001</leafValues></_>
        <_>
          <internalNodes>
            0 -1 50 -131801960 -193223085 1777888374 2033406128
            -848110149 -461931173 52613098 453196411</internalNodes>
          <leafValues>
            -2.5662162899971008e-001 3.6211094260215759e-001</leafValues></_>
        <_>
          <internalNodes>
            0 -1 65 -78966 1631059894 58189387 1006472927 2146957294
            1339555711 -411833365 -821614403</internalNodes>
          <leafValues>
            -2.3577539622783661e-001 3.7924262881278992e-001</leafValues></_>
        <_>
          <internalNodes>
            0 -1 31 -789002038 -97056695 1706064463 -1007190613
            1559675208 -837050753 -565125217 -138679365</internalNodes>
          <leafValues>
            -2.2243990004062653e-001 4.1642478108406067e-001</leafValues></_>
        <_>
          <internalNodes>
            0 -1 129 -142370782 226656968 -985311966 -581993990
            208380295 -1938167384 593082807 1103625367</internalNodes>
          <leafValues>
            -3.8862800598144531e-001 2.5723215937614441e-001</leafValues></_></weakClassifiers></_>
    <!-- stage 2 -->
    <_>
      <maxWeakCount>14</maxWeakCount>
      <stageThreshold>-1.5421850681304932e+000</stageThreshold>
      <weakClassifiers>
        <_>
          <internalNodes>
            0 -1 128 -753403230 -606350461 -48524013 -136327083
            -1384011606 -1078994753 -1953763393 -4203553</internalNodes>
          <leafValues>
            -6.0398542881011963e-001 3.0593949556350708e-001</leafValues></_>
        <_>
          <internalNodes>
            0 -1 26 -749480961 -45235817 -1820199459 -33816821 -5633
            -1615074581 1233909227 1221296383</internalNodes>
          <leafValues>
            -4.8898273706436157e-001 3.1805351376533508e-001</leafValues></_>
        <_>
          <internalNodes>
            0 -1 93 -81845819 -244067041 -1341586161 1373589575
            -100421722 -1820891625 793447211 2002076503</internalNodes>
          <leafValues>
            -4.1889742016792297e-001 2.8806301951408386e-001</leafValues></_>
        <_>
          <internalNodes>
            0 -1 35 -720182016 -144524820 1506580464 -13841660
            -143459095 -106722614 -208430343 -2377304</internalNodes>
          <leafValues>
            -3.9951267838478088e-001 2.6593419909477234e-001</leafValues></_>
        <_>
          <internalNodes>
            0 -1 24 -942292786 -765507830 -1898196137 1594449801
            -956836593 176098775 -92292129 -11534497</internalNodes>
          <leafValues>
            -1.9942314922809601e-001 4.1120603680610657e-001</leafValues></_>
        <_>
          <internalNodes>
            0 -1 44 1510140560 -1044380996 -586151465 1296138323
            -2025601288 589541765 186778267 195494591</internalNodes>
          <leafValues>
            -3.8368436694145203e-001 1.9318230450153351e-001</leafValues></_>
        <_>
          <internalNodes>
            0 -1 104 -246681088 87281938 -1860872692 -149613795
            -1326728398 524623922 1060619015 226488149</internalNodes>
          <leafValues>
            -2.8600141406059265e-001 2.8139576315879822e-001</leafValues></_>
        <_>
          <internalNodes>
            0 -1 123 1955971323 -891424561 1228931529 -880426857
            -439700686 -1286106669 857305600 -671286817</internalNodes>
          <leafValues>
            -4.1737717390060425e-001 1.7859505116939545e-001</leafValues></_>
        <_>
          <internalNodes>
            0 -1 61 -661125992 -711933676 1100015488 1604018280
            -471324423 1196048505 2060730439 322638639</internalNodes>
          <leafValues>
            -3.5674217343330383e-001 1.9791646301746368e-001</leafValues></_>
        <_>
          <internalNodes>
            0 -1 90 -3160815 -1785384857 1331584509 -6163049 -678439358
            -1256352261 523623931 -673188625</internalNodes>
          <leafValues>
            -1.7789110541343689e-001 4.2153257131576538e-001</leafValues></_>
        <_>
          <internalNodes>
            0 -1 45 -833183220 274675722 1107475092 343338999 1417236544
            1384712194 -725968554 727699375</internalNodes>
          <leafValues>
            -4.0022021532058716e-001 1.8632441759109497e-001</leafValues></_>
        <_>
          <internalNodes>
            0 -1 51 -65353518 -229262902 -805273464 -548798247
            -533935105 -1683234645 -1331127259 64428127</internalNodes>
          <leafValues>
            -3.1172379851341248e-001 1.9777803122997284e-001</leafValues></_>
        <_>
          <internalNodes>
            0 -1 41 -89219388 -1423295218 -386210180 -44873131
            -856424750 -1096656918 -928803399 -549196197</internalNodes>
          <leafValues>
            -2.0842586457729340e-001 2.9470568895339966e-001</leafValues></_>
        <_>
          <internalNodes>
            0 -1 53 -396754564 1901093736 1141916610 756269117
            -803210662 -401735549 -1110519258 4115799</internalNodes>
          <leafValues>
            -3.0457329750061035e-001 2.0890477299690247e-001</leafValues></_></weakClassifiers></_>
    <!-- stage 3 -->
    <_>
      <maxWeakCount>12</maxWeakCount>
      <stageThreshold>-1.7100179195404053e+000</stageThreshold>
      <weakClassifiers>
        <_>
          <internalNodes>
            0 -1 83 -611060225 -682552493 -1659111553 387400511
            -1332622385 -75824525 -541327361 923238439</internalNodes>
          <leafValues>
            -6.8352127075195313e-001 2.1644774079322815e-001</leafValues></_>
        <_>
          <internalNodes>
            0 -1 18 -1604624129 69305464 1623060723 1075675219
            -1867173643 2130413755 -33555461 -1</internalNodes>
          <leafValues>
            -4.3944698572158813e-001 4.3159869313240051e-001</leafValues></_>
        <_>
          <internalNodes>
            0 -1 122 -494207250 -151342706 1390072254 1219164590
            -1027941377 -1570242549 -889787410 536919530</internalNodes>
          <leafValues>
            -5.9174859523773193e-001 2.8662937879562378e-001</leafValues></_>
        <_>
          <internalNodes>
            0 -1 15 -811696182 2143245687 490989766 1730009406
            -1391264809 -8408245 -1145374049 -1149521781</internalNodes>
          <leafValues>
            -4.0744107961654663e-001 2.8806793689727783e-001</leafValues></_>
        <_>
          <internalNodes>
            0 -1 32 1110392846 -1074328033 -251710849 1073168189
            -67158014 -718446593 -1386741793 -6304385</internalNodes>
          <leafValues>
            -2.6544666290283203e-001 4.1064152121543884e-001</leafValues></_>
        <_>
          <internalNodes>
            0 -1 56 -544272422 -117448705 1322188802 171935497
            -857802801 -204801 -10518565 -671093829</internalNodes>
          <leafValues>
            -2.7259585261344910e-001 3.6393409967422485e-001</leafValues></_>
        <_>
          <internalNodes>
            0 -1 116 -5506302 -384574189 -782779786 -315658071 573548322
            219613697 1764093679 84798925</internalNodes>
          <leafValues>
            -3.6444011330604553e-001 2.4235861003398895e-001</leafValues></_>
        <_>
          <internalNodes>
            0 -1 96 -2025331680 84174598 -2071161952 -287321614
            284345127 34570248 1374283808 1143995151</internalNodes>
          <leafValues>
            -6.5672761201858521e-001 1.4966264367103577e-001</leafValues></_>
        <_>
          <internalNodes>
            0 -1 48 -29884635 1978132465 -65563 -1611681817 -403900691
            -1191577985 -136405032 -905984627</internalNodes>
          <leafValues>
            -2.3956915736198425e-001 3.6839702725410461e-001</leafValues></_>
        <_>
          <internalNodes>
            0 -1 19 584173255 154521877 84280676 33572104 1888987310
            316920459 36276487 35127195</internalNodes>
          <leafValues>
            -4.0798005461692810e-001 1.8664866685867310e-001</leafValues></_>
        <_>
          <internalNodes>
            0 -1 127 -1156859440 319174112 -149701221 -2022268458
            393836265 -1145835053 -2033151746 67224796</internalNodes>
          <leafValues>
            -3.4589409828186035e-001 2.2378689050674438e-001</leafValues></_>
        <_>
          <internalNodes>
            0 -1 87 -1356661007 -1711922351 795832301 -72094085
            1058355249 982774584 229428088 1044355135</internalNodes>
          <leafValues>
            -2.4891190230846405e-001 3.0583539605140686e-001</leafValues></_></weakClassifiers></_>
    <!-- stage 4 -->
    <_>
      <maxWeakCount>9</maxWeakCount>
      <stageThreshold>-1.6169290542602539e+000</stageThreshold>
      <weakClassifiers>
        <_>
          <internalNodes>
            0 -1 99 -69469234 -42529 -1861541942 -32293 -594880566
            -3503878 -1098216452 -2364753</internalNodes>
          <leafValues>
            -7.7020341157913208e-001 3.3954274654388428e-001</leafValues></_>
        <_>
          <internalNodes>
            0 -1 42 1393294271 1398232571 52133643 386614035 -603980865
            1440684287 868994015 1097550223</internalNodes>
          <leafValues>
            -5.8613359928131104e-001 3.8455235958099365e-001</leafValues></_>
        <_>
          <internalNodes>
            0 -1 120 -67108869 -753413725 -786960383 -176467489
            -754015357 31391905 1359171907 1373108151</internalNodes>
          <leafValues>
            -5.5769240856170654e-001 4.0575689077377319e-001</leafValues></_>
        <_>
          <internalNodes>
            0 -1 77 -10486555 2001814817 -989344021 890193163 -405682571
            2004296291 2043867127 1966593911</internalNodes>
          <leafValues>
            -4.4802674651145935e-001 3.6259934306144714e-001</leafValues></_>
        <_>
          <internalNodes>
            0 -1 114 -708843008 -695160800 929070112 -719202288
            -1300237008 -2143587311 1811244203 -984089509</internalNodes>
          <leafValues>
            -3.5292363166809082e-001 4.6748304367065430e-001</leafValues></_>
        <_>
          <internalNodes>
            0 -1 21 -1058616280 -815851010 -1069428436 993746062
            -336737728 -13008512 724212663 -4511308</internalNodes>
          <leafValues>
            -5.6601405143737793e-001 2.4371036887168884e-001</leafValues></_>
        <_>
          <internalNodes>
            0 -1 3 5400705 134592715 -1970982855 1623285805 1094935909
            1931194543 671086079 -188747713</internalNodes>
          <leafValues>
            -5.3540247678756714e-001 3.2101565599441528e-001</leafValues></_>
        <_>
          <internalNodes>
            0 -1 133 -419442000 -1009980549 -2147446592 -489229396
            1877144368 -1780491575 553804544 -151651727</internalNodes>
          <leafValues>
            -6.3363546133041382e-001 2.3303161561489105e-001</leafValues></_>
        <_>
          <internalNodes>
            0 -1 97 -486604857 -220753511 -1061710945 282566903
            -1526273252 826015760 -903841588 1627779867</internalNodes>
          <leafValues>
            -4.1424921154975891e-001 3.3630457520484924e-001</leafValues></_></weakClassifiers></_>
    <!-- stage 5 -->
    <_>
      <maxWeakCount>6</maxWeakCount>
      <stageThreshold>-1.5518947839736938e+000</stageThreshold>
      <weakClassifiers>
        <_>
          <internalNodes>
            0 -1 100 -1844326148 -69398441 352555516 -574682851
            -1192580870 -74743126 -1733756168 -120812612</internalNodes>
          <leafValues>
            -8.1415432691574097e-001 3.6400762200355530e-001</leafValues></_>
        <_>
          <internalNodes>
            0 -1 13 -218369281 -2666785 -387714849 -232004993 -151525409
            -18921665 -186648321 -201590785</internalNodes>
          <leafValues>
            -5.7397735118865967e-001 5.9672844409942627e-001</leafValues></_>
        <_>
          <internalNodes>
            0 -1 81 -13144065 2002743671 -803617729 1428891267 -69227777
            963780610 -1418221009 858202667</internalNodes>
          <leafValues>
            -5.7146573066711426e-001 4.2183837294578552e-001</leafValues></_>
        <_>
          <internalNodes>
            0 -1 85 -1344275332 -1288479360 -275 -586293843 -1879048278
            25335205 1063718059 218885775</internalNodes>
          <leafValues>
            -4.0623265504837036e-001 5.1130998134613037e-001</leafValues></_>
        <_>
          <internalNodes>
            0 -1 108 -150740080 -234782384 -683376995 -214710153
            1996853928 -1425895119 1644688315 1863176459</internalNodes>
          <leafValues>
            -4.2866483330726624e-001 4.3464106321334839e-001</leafValues></_>
        <_>
          <internalNodes>
            0 -1 17 2142225514 1926218254 -2097000374 1913274370
            -351575958 -217890709 -620670953 -217659569</internalNodes>
          <leafValues>
            -5.1069396734237671e-001 3.7929418683052063e-001</leafValues></_></weakClassifiers></_>
    <!-- stage 6 -->
    <_>
      <maxWeakCount>12</maxWeakCount>
      <stageThreshold>-1.5649251937866211e+000</stageThreshold>
      <weakClassifiers>
        <_>
          <internalNodes>
            0 -1 23 -673851905 -552529795 425022975 -1090849 -72828161
            -1165440822 -16725873 1329856516</internalNodes>
          <leafValues>
            -6.1118251085281372e-001 2.8962534666061401e-001</leafValues></_>
        <_>
          <internalNodes>
            0 -1 98 -2138568566 -609751431 -1578964245 -9065509
            -239829010 -2097153 -277479457 -823301</internalNodes>
          <leafValues>
            -3.7904295325279236e-001 4.8133152723312378e-001</leafValues></_>
        <_>
          <internalNodes>
            0 -1 111 -456991021 -201326755 -5308803 -140071005
            -553648417 -76089488 -33620226 -218057458</internalNodes>
          <leafValues>
            -3.0812546610832214e-001 4.3069621920585632e-001</leafValues></_>
        <_>
          <internalNodes>
            0 -1 20 2133845582 -147879416 -5571803 -14454995 -134789557
            -140880017 2001985831 -83624609</internalNodes>
          <leafValues>
            -3.1765797734260559e-001 3.8258031010627747e-001</leafValues></_>
        <_>
          <internalNodes>
            0 -1 52 -1135894 -151067906 603602619 -536908033 -67174486
            1879032491 -12587093 -8457237</internalNodes>
          <leafValues>
            -2.5389909744262695e-001 4.4211229681968689e-001</leafValues></_>
        <_>
          <internalNodes>
            0 -1 29 -1221177142 -1214775290 -2129442323 1872440487
            -249945974 -22599550 -383825398 1326383117</internalNodes>
          <leafValues>
            -3.0422297120094299e-001 2.7398145198822021e-001</leafValues></_>
        <_>
          <internalNodes>
            0 -1 6 -1072901906 -832437808 336957583 -2032202405
            -1182025221 -1097617262 -1962210369 -42099283</internalNodes>
          <leafValues>
            -3.2686957716941833e-001 2.6288488507270813e-001</leafValues></_>
        <_>
          <internalNodes>
            0 -1 80 -1201745454 -94686336 25380302 960780940 -614430522
            -682411471 865834744 1073806848</internalNodes>
          <leafValues>
            -5.1245212554931641e-001 1.8177402019500732e-001</leafValues></_>
        <_>
          <internalNodes>
            0 -1 113 -774753586 1876148767 -1471633786 -951082877
            -828703780 -499660149 1787529228 1092550721</internalNodes>
          <leafValues>
            -4.3981644511222839e-001 1.7507669329643250e-001</leafValues></_>
        <_>
          <internalNodes>
            0 -1 130 614991364 79700360 -2051910363 -1223511977
            -223839700 -550262625 -1902011460 -201379077</internalNodes>
          <leafValues>
            -3.7217527627944946e-001 2.1580567955970764e-001</leafValues></_>
        <_>
          <internalNodes>
            0 -1 59 -285826108 -402080883 -679453895 -372260152
            1338964907 -1359181063 -788622521 -2130116543</internalNodes>
          <leafValues>
            -3.1183725595474243e-001 2.5454160571098328e-001</leafValues></_>
        <_>
          <internalNodes>
            0 -1 33 -498892594 -743486737 1162954191 -1066053617
            -287616817 1309360320 -1558121650 1607465206</internalNodes>
          <leafValues>
            -3.8463330268859863e-001 2.0152346789836884e-001</leafValues></_></weakClassifiers></_>
    <!-- stage 7 -->
    <_>
      <maxWeakCount>15</maxWeakCount>
      <stageThreshold>-1.5490783452987671e+000</stageThreshold>
      <weakClassifiers>
        <_>
          <internalNodes>
            0 -1 110 -927291764 -126992193 -786817618 -683699825
            -1069837585 -121995026 -1416905793 -67425601</internalNodes>
          <leafValues>
            -6.8698662519454956e-001 4.0695015341043472e-002</leafValues></_>
        <_>
          <internalNodes>
            0 -1 22 -778203011 -653572645 268456186 1889439450
            -1188072709 -10774273 -224669458 -254639952</internalNodes>
          <leafValues>
            -5.5876427888870239e-001 2.4288655817508698e-001</leafValues></_>
        <_>
          <internalNodes>
            0 -1 105 -149360592 -15684848 -679281828 -7307008
            -1315835465 -1450460485 1540002746 -13684477</internalNodes>
          <leafValues>
            -3.5426655411720276e-001 3.3842507004737854e-001</leafValues></_>
        <_>
          <internalNodes>
            0 -1 117 -217318878 -687082719 -738733832 -638091781
            -14483566 1599600450 -68688401 1272698335</internalNodes>
          <leafValues>
            -3.0666601657867432e-001 3.4154993295669556e-001</leafValues></_>
        <_>
          <internalNodes>
            0 -1 55 -8729394 1431523390 -167624312 2143900367 -796868406
            1276067848 -1152996689 1395387291</internalNodes>
          <leafValues>
            -3.7679651379585266e-001 2.4592205882072449e-001</leafValues></_>
        <_>
          <internalNodes>
            0 -1 37 577138944 1339397442 1528271732 -246198032
            1958476597 -392174599 -1180306699 -706899500</internalNodes>
          <leafValues>
            -4.5293417572975159e-001 2.0863944292068481e-001</leafValues></_>
        <_>
          <internalNodes>
            0 -1 0 815252512 74041667 270008388 526760333 658465094
            1178059274 17330242 1700211635</internalNodes>
          <leafValues>
            -3.8935282826423645e-001 2.2327077388763428e-001</leafValues></_>
        <_>
          <internalNodes>
            0 -1 58 -1271137536 -1023294011 -1743031852 702493329
            -233062953 264022178 1351111057 -993147489</internalNodes>
          <leafValues>
            -3.2837671041488647e-001 2.6954314112663269e-001</leafValues></_>
        <_>
          <internalNodes>
            0 -1 63 2135795338 -489986500 239700079 -11689249 -651187454
            977412878 2108208928 -2515319</internalNodes>
          <leafValues>
            -3.1714689731597900e-001 2.5480329990386963e-001</leafValues></_>
        <_>
          <internalNodes>
            0 -1 34 -221271444 -523264596 1385328849 1615562471
            168346114 -729085846 -1742610454 -730858529</internalNodes>
          <leafValues>
            -4.6690431237220764e-001 1.8506133556365967e-001</leafValues></_>
        <_>
          <internalNodes>
            0 -1 124 -676346225 -755006224 -268589925 -1122533125
            -1090630267 100488240 -134429505 1361299823</internalNodes>
          <leafValues>
            -2.2516079246997833e-001 3.7037876248359680e-001</leafValues></_>
        <_>
          <internalNodes>
            0 -1 97 1895235286 -688013929 -319639554 -161239049
            -998908601 645811549 -294888098 -412616805</internalNodes>
          <leafValues>
            -2.7291354537010193e-001 2.9213696718215942e-001</leafValues></_>
        <_>
          <internalNodes>
            0 -1 107 -1749032523 -159080123 419748319 -975828972
            408483713 -1912279414 277486766 1253781515</internalNodes>
          <leafValues>
            -3.0048498511314392e-001 2.6269286870956421e-001</leafValues></_>
        <_>
          <internalNodes>
            0 -1 91 -1343371215 908255558 222413247 -1360948787
            -1562530927 26067635 987385 626484511</internalNodes>
          <leafValues>
            -4.1181793808937073e-001 1.7525085806846619e-001</leafValues></_>
        <_>
          <internalNodes>
            0 -1 70 1348245998 1464971775 8590537 -1942536033
            -1071342649 423647433 -1634082654 461054827</internalNodes>
          <leafValues>
            -2.9995441436767578e-001 2.4321778118610382e-001</leafValues></_></weakClassifiers></_>
    <!-- stage 8 -->
    <_>
      <maxWeakCount>12</maxWeakCount>
      <stageThreshold>-1.7505148649215698e+000</stageThreshold>
      <weakClassifiers>
        <_>
          <internalNodes>
            0 -1 21 1227283072 -577429443 -1178231457 -547677793
            -376795209 -71589705 -70533189 -21573</internalNodes>
          <leafValues>
            -6.2033331394195557e-001 2.4066667258739471e-001</leafValues></_>
        <_>
          <internalNodes>
            0 -1 109 1224132718 -70945 -527789877 -219135241 -804719364
            -593073 -125768721 -146754721</internalNodes>
          <leafValues>
            -5.1796525716781616e-001 2.6488363742828369e-001</leafValues></_>
        <_>
          <internalNodes>
            0 -1 10 1812860576 1912602583 -320283064 -537559361
            -671221825 -67112962 2001534956 -34817</internalNodes>
          <leafValues>
            -3.2623034715652466e-001 4.0525311231613159e-001</leafValues></_>
        <_>
          <internalNodes>
            0 -1 92 -268702033 -209732609 -269891602 -148373585
            -176196348 1914920821 -790769 1934098303</internalNodes>
          <leafValues>
            -3.1366267800331116e-001 4.1446974873542786e-001</leafValues></_>
        <_>
          <internalNodes>
            0 -1 115 -71304257 2140129501 282133135 1420065350 411807163
            554161039 160109530 27214222</internalNodes>
          <leafValues>
            -3.8486087322235107e-001 3.1933039426803589e-001</leafValues></_>
        <_>
          <internalNodes>
            0 -1 76 -785150853 -1374218606 -419293902 -1777385414
            -779093941 671316510 -358096862 201391128</internalNodes>
          <leafValues>
            -4.7062879800796509e-001 1.8013805150985718e-001</leafValues></_>
        <_>
          <internalNodes>
            0 -1 110 -829782016 -1435598737 1074876513 -201522817
            -1793918454 -558234885 461400239 -208270337</internalNodes>
          <leafValues>
            -3.1509429216384888e-001 3.1837028264999390e-001</leafValues></_>
        <_>
          <internalNodes>
            0 -1 112 -235998302 -8967136 -8491 -315900117 -4215798
            -141877983 1877974926 1225759019</internalNodes>
          <leafValues>
            -2.7496635913848877e-001 3.6453038454055786e-001</leafValues></_>
        <_>
          <internalNodes>
            0 -1 47 1882911520 -504320032 2088762649 -541886569
            -59785813 -998246913 -1073761095 -1044519459</internalNodes>
          <leafValues>
            -2.9773268103599548e-001 3.1409171223640442e-001</leafValues></_>
        <_>
          <internalNodes>
            0 -1 39 -85196865 -523262856 445720939 33527839 -154076165
            1156762176 865333311 1093919671</internalNodes>
          <leafValues>
            -3.9752748608589172e-001 2.5620049238204956e-001</leafValues></_>
        <_>
          <internalNodes>
            0 -1 67 -4214837 -1483830328 -784022524 -1394148224
            -138679297 217770231 -618416046 1172175255</internalNodes>
          <leafValues>
            -3.2900711894035339e-001 2.6535218954086304e-001</leafValues></_>
        <_>
          <internalNodes>
            0 -1 8 -786950757 1527748861 50400261 1208467739 -1674993357
            -214204239 -1590970032 -146414737</internalNodes>
          <leafValues>
            -3.0146509408950806e-001 2.8129649162292480e-001</leafValues></_></weakClassifiers></_>
    <!-- stage 9 -->
    <_>
      <maxWeakCount>11</maxWeakCount>
      <stageThreshold>-1.8037211894989014e+000</stageThreshold>
      <weakClassifiers>
        <_>
          <internalNodes>
            0 -1 40 -1 -134221109 16992397 -673188657 -68160513
            -1847680600 232636911 1239373995</internalNodes>
          <leafValues>
            -6.4266395568847656e-001 2.6005187630653381e-001</leafValues></_>
        <_>
          <internalNodes>
            0 -1 2 1342177360 -115797615 33555648 1427444051 -1937597697
            -1145339717 16820475 -71597893</internalNodes>
          <leafValues>
            -4.6094185113906860e-001 3.9245089888572693e-001</leafValues></_>
        <_>
          <internalNodes>
            0 -1 73 -267346 -388042803 -477724640 -1024465875 -538202001
            1083345467 -179440637 1088935423</internalNodes>
          <leafValues>
            -4.5371136069297791e-001 3.4366914629936218e-001</leafValues></_>
        <_>
          <internalNodes>
            0 -1 98 -1060222738 -604005889 -2145236993 -604091937
            822524927 -187710801 -1693257473 -198161425</internalNodes>
          <leafValues>
            -3.8834369182586670e-001 3.6535975337028503e-001</leafValues></_>
        <_>
          <internalNodes>
            0 -1 79 -71335254 -609234697 1116529775 -1277083241
            -249589688 1963278853 -527119381 1886759357</internalNodes>
          <leafValues>
            -3.9899012446403503e-001 3.6633488535881042e-001</leafValues></_>
        <_>
          <internalNodes>
            0 -1 12 1880873331 1951357335 269834990 -1476226320
            1493671335 -10749561 -138430773 -218378048</internalNodes>
          <leafValues>
            -5.1436275243759155e-001 2.5239977240562439e-001</leafValues></_>
        <_>
          <internalNodes>
            0 -1 1 -1459315646 -219672432 1225854415 -108003008
            456200992 -225337197 -1416849081 -214528477</internalNodes>
          <leafValues>
            -4.2868638038635254e-001 3.5729041695594788e-001</leafValues></_>
        <_>
          <internalNodes>
            0 -1 101 -846551928 -1273896178 -2011932610 -2010916934
            -1567487832 540737801 30049674 160427151</internalNodes>
          <leafValues>
            -4.0761432051658630e-001 3.1013399362564087e-001</leafValues></_>
        <_>
          <internalNodes>
            0 -1 88 -78121009 -185098274 486876508 208560200 -202657613
            1652787924 1291901445 1080908041</internalNodes>
          <leafValues>
            -5.0396257638931274e-001 2.5665897130966187e-001</leafValues></_>
        <_>
          <internalNodes>
            0 -1 36 -552393887 -900644826 -1784069229 -10513021
            -744254721 -1886156070 -1285330985 -438978165</internalNodes>
          <leafValues>
            -3.3474105596542358e-001 3.3187973499298096e-001</leafValues></_>
        <_>
          <internalNodes>
            0 -1 134 -2134481848 551858634 -1072527048 1651109952
            1347174467 6679458 1749213387 1425520863</internalNodes>
          <leafValues>
            -3.3143025636672974e-001 3.3680641651153564e-001</leafValues></_></weakClassifiers></_>
    <!-- stage 10 -->
    <_>
      <maxWeakCount>18</maxWeakCount>
      <stageThreshold>-1.5765548944473267e+000</stageThreshold>
      <weakClassifiers>
        <_>
          <internalNodes>
            0 -1 28 -69206017 -739259681 -652881425 -639811508 -71566337
            -1678829125 1397472223 1126125403</internalNodes>
          <leafValues>
            -6.5617740154266357e-001 2.5087924674153328e-002</leafValues></_>
        <_>
          <internalNodes>
            0 -1 7 -4194817 -574402103 -833625029 -1570348375
            -1275330561 -31787989 -256251141 -993135874</internalNodes>
          <leafValues>
            -3.5398861765861511e-001 3.0340808629989624e-001</leafValues></_>
        <_>
          <internalNodes>
            0 -1 94 -39847969 -244198660 722469391 1974284495 -354045719
            -251629102 1207963838 1374155067</internalNodes>
          <leafValues>
            -3.4374022483825684e-001 2.7551382780075073e-001</leafValues></_>
        <_>
          <internalNodes>
            0 -1 131 -1129915440 -1125764733 -645721130 -191184722
            -743705156 -88365645 -1181058052 -67969094</internalNodes>
          <leafValues>
            -3.8454559445381165e-001 2.2431999444961548e-001</leafValues></_>
        <_>
          <internalNodes>
            0 -1 27 -72289604 -545731332 -621218858 1997048902
            1567815120 1861577972 1955395451 -712782177</internalNodes>
          <leafValues>
            -2.5615644454956055e-001 3.1130158901214600e-001</leafValues></_>
        <_>
          <internalNodes>
            0 -1 60 -217213762 1862672580 -754428898 1526858754
            -442974022 76171404 457517363 1493389315</internalNodes>
          <leafValues>
            -3.1679150462150574e-001 2.2965885698795319e-001</leafValues></_>
        <_>
          <internalNodes>
            0 -1 106 -619447934 1888633546 -720301681 1926972617
            -234392312 -1106165622 554014277 1095627631</internalNodes>
          <leafValues>
            -3.1594371795654297e-001 2.0643037557601929e-001</leafValues></_>
        <_>
          <internalNodes>
            0 -1 54 -395653374 1996505115 -1048477526 2000871443
            1241794636 489766922 -402597225 288613464</internalNodes>
          <leafValues>
            -3.9292740821838379e-001 1.3148377835750580e-001</leafValues></_>
        <_>
          <internalNodes>
            0 -1 62 -735711964 -613820393 -377369810 790413469
            -620187023 996221221 -377447676 102992695</internalNodes>
          <leafValues>
            -4.5477631688117981e-001 1.3420698046684265e-001</leafValues></_>
        <_>
          <internalNodes>
            0 -1 30 -802176826 1479421449 385543027 -109349057
            -1764525001 -972939490 1849976383 1165752427</internalNodes>
          <leafValues>
            -2.2033737599849701e-001 2.5665909051895142e-001</leafValues></_>
        <_>
          <internalNodes>
            0 -1 72 -201345956 -550966541 -81997 -558946260 -8538115
            -1195410971 -890226117 -539131333</internalNodes>
          <leafValues>
            -1.8181025981903076e-001 3.3230814337730408e-001</leafValues></_>
        <_>
          <internalNodes>
            0 -1 9 -800063542 1276432668 335777984 1007735530
            -1459382538 -885878655 -1572398153 -143265424</internalNodes>
          <leafValues>
            -6.3116908073425293e-001 9.4546183943748474e-002</leafValues></_>
        <_>
          <internalNodes>
            0 -1 132 -717247990 2147470847 -23236647 1238831079
            -1455451989 187585540 -1979801125 -853834529</internalNodes>
          <leafValues>
            -1.7752999067306519e-001 3.1431937217712402e-001</leafValues></_>
        <_>
          <internalNodes>
            0 -1 4 -1730825416 1856558337 297981252 1459970576 971482945
            1263380108 -2518681 -749255536</internalNodes>
          <leafValues>
            -2.4172678589820862e-001 2.4012814462184906e-001</leafValues></_>
        <_>
          <internalNodes>
            0 -1 119 -911359584 -1609922136 -1948983152 -476282703
            994681737 290652704 -542656479 42949252</internalNodes>
          <leafValues>
            -3.8189578056335449e-001 1.4341233670711517e-001</leafValues></_>
        <_>
          <internalNodes>
            0 -1 102 -38873929 1991452274 -580179 -2018835209
            -1111677261 -164457165 -671615309 -5249549</internalNodes>
          <leafValues>
            -1.4397497475147247e-001 3.7995332479476929e-001</leafValues></_>
        <_>
          <internalNodes>
            0 -1 69 -137056664 -1262473696 -1006583765 910229759
            -739548911 2111513996 -653316599 656086869</internalNodes>
          <leafValues>
            -4.1910046339035034e-001 1.1930779367685318e-001</leafValues></_>
        <_>
          <internalNodes>
            0 -1 135 1273411135 1200909994 -922780002 1832382122
            1442413653 -689761938 -2088353802 -1069295653</internalNodes>
          <leafValues>
            -1.8651820719242096e-001 2.7538612484931946e-001</leafValues></_></weakClassifiers></_>
    <!-- stage 11 -->
    <_>
      <maxWeakCount>22</maxWeakCount>
      <stageThreshold>-1.4199010133743286e+000</stageThreshold>
      <weakClassifiers>
        <_>
          <internalNodes>
            0 -1 86 353489151 -539020805 294197211 -1659956343
            -1391922245 -7368312 -72130935 -1895768696</internalNodes>
          <leafValues>
            -5.4200541973114014e-001 6.4599484205245972e-002</leafValues></_>
        <_>
          <internalNodes>
            0 -1 121 134874124 -539374817 1235173631 -27653 430490319
            -594771425 -1926501445 -1077967969</internalNodes>
          <leafValues>
            -3.1238877773284912e-001 2.7930468320846558e-001</leafValues></_>
        <_>
          <internalNodes>
            0 -1 31 1344307418 -79750325 1437653775 -752795737
            1567872715 -39891331 -137101318 -13372437</internalNodes>
          <leafValues>
            -2.4275234341621399e-001 3.1218224763870239e-001</leafValues></_>
        <_>
          <internalNodes>
            0 -1 74 970066398 -604301673 31988215 -1945625642 1746634961
            -671627150 1502192506 -251333184</internalNodes>
          <leafValues>
            -3.6380672454833984e-001 1.9005437195301056e-001</leafValues></_>
        <_>
          <internalNodes>
            0 -1 57 -75554161 1117471065 13289671 1783816391 140263436
            1124157955 -1811166017 -76809233</internalNodes>
          <leafValues>
            -2.8708878159523010e-001 2.4374967813491821e-001</leafValues></_>
        <_>
          <internalNodes>
            0 -1 95 -1580640 1965118721 1958963879 -240684323 60289678
            17242373 399072071 1461184011</internalNodes>
          <leafValues>
            -3.8511806726455688e-001 1.6727353632450104e-001</leafValues></_>
        <_>
          <internalNodes>
            0 -1 36 -577662703 -1005550572 1568790833 -145389285
            -71724652 -4552024 -1582984265 -1058741863</internalNodes>
          <leafValues>
            -2.8972852230072021e-001 1.9867318868637085e-001</leafValues></_>
        <_>
          <internalNodes>
            0 -1 71 -190601208 -1501483385 -469342804 -364966309
            568005427 -96394355 -1819564103 -1487603729</internalNodes>
          <leafValues>
            -2.8754919767379761e-001 2.0362392067909241e-001</leafValues></_>
        <_>
          <internalNodes>
            0 -1 125 -336671998 -432017730 -474104867 -985931825
            695092738 -2101881063 -1018227169 -706753285</internalNodes>
          <leafValues>
            -2.3724234104156494e-001 2.5360527634620667e-001</leafValues></_>
        <_>
          <internalNodes>
            0 -1 16 570949824 675940632 319881536 606092312 -1415113931
            -719867727 732662267 -1086461027</internalNodes>
          <leafValues>
            -3.6344081163406372e-001 1.5417319536209106e-001</leafValues></_>
        <_>
          <internalNodes>
            0 -1 49 -157677460 -245694332 -736967409 -821624821
            -1100105553 2030501899 -1583101043 1532971307</internalNodes>
          <leafValues>
            -2.7895760536193848e-001 2.3240558803081512e-001</leafValues></_>
        <_>
          <internalNodes>
            0 -1 75 318918712 -1705311553 251659046 -370205825 218169841
            -1868103605 1376302960 -799474179</internalNodes>
          <leafValues>
            -4.2686727643013000e-001 1.2557914853096008e-001</leafValues></_>
        <_>
          <internalNodes>
            0 -1 50 -118172002 -770670254 442026076 1292091541
            -817580581 -1609678550 -668676612 19122203</internalNodes>
          <leafValues>
            -2.9629909992218018e-001 1.9184492528438568e-001</leafValues></_>
        <_>
          <internalNodes>
            0 -1 60 -1748982810 2047255468 -654233333 1258628098
            -476044421 -323999046 -131653337 -612938494</internalNodes>
          <leafValues>
            -2.3356489837169647e-001 2.3475416004657745e-001</leafValues></_>
        <_>
          <internalNodes>
            0 -1 5 -1461101045 69261130 4297148 435116436 1124213504
            10595003 -2086713082 -1854672377</internalNodes>
          <leafValues>
            -2.3076908290386200e-001 2.4354347586631775e-001</leafValues></_>
        <_>
          <internalNodes>
            0 -1 25 707134980 -1115721878 -1346439457 938733045
            1870415445 2138570751 -21006337 -1115738117</internalNodes>
          <leafValues>
            -2.3442043364048004e-001 2.5726628303527832e-001</leafValues></_>
        <_>
          <internalNodes>
            0 -1 78 -87577042 -20204802 537838126 -329456819 -1279621570
            -769360967 -393671865 1180827493</internalNodes>
          <leafValues>
            -3.1441891193389893e-001 1.8150050938129425e-001</leafValues></_>
        <_>
          <internalNodes>
            0 -1 64 1658979334 1480276249 349259022 572151195 -853325286
            1921917195 -1180139797 572849179</internalNodes>
          <leafValues>
            -4.5054069161415100e-001 1.1982347071170807e-001</leafValues></_>
        <_>
          <internalNodes>
            0 -1 68 -997698870 1353898301 13685450 1318471823 1655241105
            -2130706187 -1702811213 37880072</internalNodes>
          <leafValues>
            -4.3049338459968567e-001 1.2320691347122192e-001</leafValues></_>
        <_>
          <internalNodes>
            0 -1 118 -406870255 -876348434 -1342244284 -33956999
            94873571 160432119 1173345742 -576719430</internalNodes>
          <leafValues>
            -1.8699757754802704e-001 3.0168133974075317e-001</leafValues></_>
        <_>
          <internalNodes>
            0 -1 46 -890067953 549868562 -231620550 610697 32535896
            447218176 -323841864 2004285918</internalNodes>
          <leafValues>
            -3.3998507261276245e-001 1.4426419138908386e-001</leafValues></_>
        <_>
          <internalNodes>
            0 -1 66 31361831 1423784822 -293410462 643035565 -2048392652
            -475831774 -635400067 1940577279</internalNodes>
          <leafValues>
            -2.8126981854438782e-001 1.8167403340339661e-001</leafValues></_></weakClassifiers></_></stages>
  <features>
    <_>
      <rect>
        0 0 1 1</rect></_>
    <_>
      <rect>
        0 0 4 1</rect></_>
    <_>
      <rect>
        0 0 8 1</rect></_>
    <_>
      <rect>
        0 3 4 3</rect></_>
    <_>
      <rect>
        0 6 1 2</rect></_>
    <_>
      <rect>
        1 0 1 2</rect></_>
    <_>
      <rect>
        1 0 4 1</rect></_>
    <_>
      <rect>
        1 2 4 2</rect></_>
    <_>
      <rect>
        1 3 3 1</rect></_>
    <_>
      <rect>
        2 0 3 2</rect></_>
    <_>
      <rect>
        2 0 7 1</rect></_>
    <_>
      <rect>
        2 1 3 1</rect></_>
    <_>
      <rect>
        2 1 4 2</rect></_>
    <_>
      <rect>
        2 6 3 2</rect></_>
    <_>
      <rect>
        3 0 2 2</rect></_>
    <_>
      <rect>
        3 0 3 1</rect></_>
    <_>
      <rect>
        3 0 4 1</rect></_>
    <_>
      <rect>
        3 3 2 2</rect></_>
    <_>
      <rect>
        3 3 3 3</rect></_>
    <_>
      <rect>
        3 3 4 2</rect></_>
    <_>
      <rect>
        3 4 2 1</rect></_>
    <_>
      <rect>
        4 0 2 1</rect></_>
    <_>
      <rect>
        4 1 3 2</rect></_>
    <_>
      <rect>
        4 2 3 1</rect></_>
    <_>
      <rect>
        4 4 2 2</rect></_>
    <_>
      <rect>
        5 0 1 1</rect></_>
    <_>
      <rect>
        5 0 2 4</rect></_>
    <_>
      <rect>
        5 3 1 3</rect></_>
    <_>
      <rect>
        5 3 2 2</rect></_>
    <_>
      <rect>
        5 3 3 1</rect></_>
    <_>
      <rect>
        5 4 1 1</rect></_>
    <_>
      <rect>
        5 4 1 2</rect></_>
    <_>
      <rect>
        5 5 1 1</rect></_>
    <_>
      <rect>
        5 5 2 2</rect></_>
    <_>
      <rect>
        5 8 2 1</rect></_>
    <_>
      <rect>
        6 0 1 1</rect></_>
    <_>
      <rect>
        6 0 2 1</rect></_>
    <_>
      <rect>
        6 1 1 1</rect></_>
    <_>
      <rect>
        6 1 2 3</rect></_>
    <_>
      <rect>
        6 3 2 2</rect></_>
    <_>
      <rect>
        6 3 2 3</rect></_>
    <_>
      <rect>
        6 4 1 1</rect></_>
    <_>
      <rect>
        6 4 2 2</rect></_>
    <_>
      <rect>
        6 5 2 2</rect></_>
    <_>
      <rect>
        6 5 3 1</rect></_>
    <_>
      <rect>
        6 6 1 1</rect></_>
    <_>
      <rect>
        6 7 1 1</rect></_>
    <_>
      <rect>
        7 0 1 1</rect></_>
    <_>
      <rect>
        7 1 1 1</rect></_>
    <_>
      <rect>
        7 3 2 1</rect></_>
    <_>
      <rect>
        7 4 1 1</rect></_>
    <_>
      <rect>
        7 4 2 1</rect></_>
    <_>
      <rect>
        7 4 3 2</rect></_>
    <_>
      <rect>
        7 5 1 1</rect></_>
    <_>
      <rect>
        7 6 1 1</rect></_>
    <_>
      <rect>
        7 6 1 2</rect></_>
    <_>
      <rect>
        7 6 3 2</rect></_>
    <_>
      <rect>
        7 8 1 1</rect></_>
    <_>
      <rect>
        8 0 1 1</rect></_>
    <_>
      <rect>
        8 1 1 1</rect></_>
    <_>
      <rect>
        8 2 1 1</rect></_>
    <_>
      <rect>
        8 3 1 1</rect></_>
    <_>
      <rect>
        8 3 4 3</rect></_>
    <_>
      <rect>
        8 4 3 2</rect></_>
    <_>
      <rect>
        8 6 1 1</rect></_>
    <_>
      <rect>
        8 6 3 1</rect></_>
    <_>
      <rect>
        8 7 1 1</rect></_>
    <_>
      <rect>
        9 0 1 1</rect></_>
    <_>
      <rect>
        9 2 2 1</rect></_>
    <_>
      <rect>
        9 2 2 3</rect></_>
    <_>
      <rect>
        9 3 2 1</rect></_>
    <_>
      <rect>
        9 3 2 3</rect></_>
    <_>
      <rect>
        9 5 3 1</rect></_>
    <_>
      <rect>
        10 0 1 1</rect></_>
    <_>
      <rect>
        10 0 3 2</rect></_>
    <_>
      <rect>
        10 0 4 2</rect></_>
    <_>
      <rect>
        10 1 2 2</rect></_>
    <_>
      <rect>
        10 2 3 3</rect></_>
    <_>
      <rect>
        11 0 1 1</rect></_>
    <_>
      <rect>
        11 0 2 1</rect></_>
    <_>
      <rect>
        11 0 2 2</rect></_>
    <_>
      <rect>
        11 0 2 4</rect></_>
    <_>
      <rect>
        11 0 3 4</rect></_>
    <_>
      <rect>
        11 1 3 3</rect></_>
    <_>
      <rect>
        11 1 4 1</rect></_>
    <_>
      <rect>
        11 2 2 1</rect></_>
    <_>
      <rect>
        11 2 3 1</rect></_>
    <_>
      <rect>
        11 3 2 1</rect></_>
    <_>
      <rect>
        11 3 3 2</rect></_>
    <_>
      <rect>
        11 3 4 3</rect></_>
    <_>
      <rect>
        11 4 2 2</rect></_>
    <_>
      <rect>
        11 6 2 1</rect></_>
    <_>
      <rect>
        12 0 1 1</rect></_>
    <_>
      <rect>
        12 2 2 3</rect></_>
    <_>
      <rect>
        12 3 2 2</rect></_>
    <_>
      <rect>
        12 7 2 1</rect></_>
    <_>
      <rect>
        12 8 2 1</rect></_>
    <_>
      <rect>
        13 0 1 1</rect></_>
    <_>
      <rect>
        13 0 2 1</rect></_>
    <_>
      <rect>
        13 0 3 1</rect></_>
    <_>
      <rect>
        13 1 3 1</rect></_>
    <_>
      <rect>
        13 2 1 1</rect></_>
    <_>
      <rect>
        13 3 1 2</rect></_>
    <_>
      <rect>
        13 3 2 2</rect></_>
    <_>
      <rect>
        13 3 2 3</rect></_>
    <_>
      <rect>
        13 4 1 1</rect></_>
    <_>
      <rect>
        13 4 2 2</rect></_>
    <_>
      <rect>
        13 5 1 1</rect></_>
    <_>
      <rect>
        13 5 2 2</rect></_>
    <_>
      <rect>
        14 0 1 1</rect></_>
    <_>
      <rect>
        14 0 2 1</rect></_>
    <_>
      <rect>
        14 1 1 1</rect></_>
    <_>
      <rect>
        14 2 1 1</rect></_>
    <_>
      <rect>
        14 2 2 2</rect></_>
    <_>
      <rect>
        14 3 1 1</rect></_>
    <_>
      <rect>
        14 4 1 2</rect></_>
    <_>
      <rect>
        14 4 2 2</rect></_>
    <_>
      <rect>
        14 5 2 2</rect></_>
    <_>
      <rect>
        14 6 1 1</rect></_>
    <_>
      <rect>
        14 8 1 1</rect></_>
    <_>
      <rect>
        14 9 2 1</rect></_>
    <_>
      <rect>
        15 0 1 1</rect></_>
    <_>
      <rect>
        15 1 1 1</rect></_>
    <_>
      <rect>
        15 2 3 3</rect></_>
    <_>
      <rect>
        15 3 1 1</rect></_>
    <_>
      <rect>
        15 4 2 1</rect></_>
    <_>
      <rect>
        15 4 2 2</rect></_>
    <_>
      <rect>
        15 5 1 1</rect></_>
    <_>
      <rect>
        15 5 2 1</rect></_>
    <_>
      <rect>
        15 6 1 1</rect></_>
    <_>
      <rect>
        16 0 1 1</rect></_>
    <_>
      <rect>
        16 1 1 1</rect></_>
    <_>
      <rect>
        16 4 1 1</rect></_>
    <_>
      <rect>
        17 3 2 2</rect></_>
    <_>
      <rect>
        21 0 1 2</rect></_>
    <_>
      <rect>
        21 1 1 3</rect></_></features></cascade>
</opencv_storage>
